svm_type c_svc
kernel_type linear
nr_class 2
total_sv 18
rho -0.2
label 1 -1
nr_sv 9 9
SV
1 1:2 
1 1:1 2:1.7 
1 2:2 
1 1:-1 2:1.7 
0.8800000000000001 1:-2 
1 1:-1 2:-1.7 
1 2:-2 
1 1:1 2:-1.7 
1 1:2 
-0.9809000967964658 1:3 
-1 1:1 2:2.5 
-1 2:3 
-1 1:-1 2:2.5 
-1 1:-3 
-1 1:-1 2:-2.5 
-1 2:-3 
-1 1:1 2:-2.5 
-0.8990999032035342 1:3 
