svm_type c_svc
kernel_type rbf
gamma 0.5
nr_class 2
total_sv 18
rho 0.0595413
label 1 -1
nr_sv 9 9
SV
1 1:2 
1 1:1 2:1.7 
1 2:2 
1 1:-1 2:1.7 
1 1:-2 
1 1:-1 2:-1.7 
1 2:-2 
1 1:1 2:-1.7 
1 1:2 
-1 1:3 
-1 1:1 2:2.5 
-1 2:3 
-1 1:-1 2:2.5 
-1 1:-3 
-1 1:-1 2:-2.5 
-1 2:-3 
-1 1:1 2:-2.5 
-1 1:3 
